// #### Generated By: http://www.cufonfonts.com ####
/*!
 * The following copyright notice may not be removed under any circumstances.
 * 
 * Copyright:
 * (c) 1999 Nick Curtis. All Rights Reserved. Generated by Fontographer 3.52
 */
Cufon.registerFont({"w":146,"face":{"font-family":"DymaxionScript","font-weight":400,"font-stretch":"normal","units-per-em":"1000","panose-1":"0 0 0 0 0 0 0 0 0 0","ascent":"800","descent":"-200","bbox":"-86 -816 900.217 216","underline-thickness":"50","underline-position":"-55","unicode-range":"U+0020-U+20AC"},"glyphs":{" ":{"k":{"!":10}},"\u00a0":{},"!":{"d":"89,-97v0,21,-18,38,-39,38v-21,0,-39,-17,-39,-38v0,-22,18,-39,39,-39v21,0,39,17,39,39xm98,-189r-44,-12r103,-359r48,0","w":204},"\"":{"d":"47,-612r-35,-12v15,-44,23,-97,43,-135v22,-21,60,1,45,34xm122,-612r-35,-12v15,-44,23,-97,43,-135v22,-21,60,1,45,34","w":165},"#":{"d":"316,-335r-82,0r-9,29r85,0r-15,50r-84,0r-60,209r-50,0r59,-209r-25,0r-59,209r-51,0r59,-209r-82,0r15,-50r81,0r9,-29r-82,0r14,-51r82,0r52,-183r50,0r-51,183r25,0r52,-183r50,0r-52,183r86,0xm157,-335r-8,29r25,0r9,-29r-26,0","w":334},"$":{"d":"144,-382v5,-80,80,-103,148,-121r70,-243r46,0r-69,239v62,-5,96,49,61,96v-17,23,-42,43,-72,58r-20,-41v43,-21,62,-38,58,-48v-4,-10,-18,-15,-41,-15r-47,164v46,26,85,103,37,155v-23,26,-56,42,-96,49r-75,263r-46,0r74,-257r-152,2r0,-46r165,-4r42,-144v-36,-25,-86,-48,-83,-107xm234,-140v37,-9,73,-44,50,-86v-5,-8,-12,-15,-19,-22xm277,-450v-40,10,-104,35,-83,84v8,20,28,33,45,46","w":435},"%":{"d":"107,-67r-51,0r181,-515r52,0xm338,-148v0,43,-38,81,-81,81v-44,0,-82,-37,-82,-81v0,-44,38,-83,82,-83v43,0,81,39,81,83xm291,-148v0,-18,-16,-35,-34,-35v-20,0,-35,15,-35,35v0,19,16,34,35,34v18,0,34,-16,34,-34xm167,-501v0,44,-39,82,-82,82v-44,0,-82,-38,-82,-82v0,-43,38,-82,82,-82v43,0,82,39,82,82xm119,-501v0,-18,-16,-35,-34,-35v-18,0,-35,17,-35,35v0,19,17,35,35,35v19,0,34,-16,34,-35","w":335},"&":{"d":"371,-512v9,-12,2,-16,-11,-16v-110,0,-222,22,-197,130v8,36,55,84,15,116v-51,40,-104,76,-112,139v9,34,77,25,108,15v40,-13,77,-37,105,-64r-47,-73r38,-25r41,64v24,-29,45,-65,56,-104r44,13v-14,51,-43,95,-74,131r72,113r-38,25r-67,-105v-52,54,-196,119,-271,47v-7,-12,-15,-24,-13,-42v8,-74,71,-126,131,-169v-13,-34,-38,-59,-38,-104v0,-119,110,-152,247,-152v57,0,74,55,40,95v-31,36,-71,73,-106,103r-31,-34v35,-34,79,-65,108,-103","w":440},"'":{"d":"67,-601r-34,-12r33,-115v2,-39,60,-32,59,0v-16,45,-39,84,-58,127","w":143},"(":{"d":"149,216v-188,-32,-107,-360,-67,-508v41,-151,115,-322,208,-434v46,-56,96,-87,153,-90r-34,64v-95,23,-150,149,-193,237v-78,158,-131,311,-131,530v0,70,9,150,69,154","w":200},")":{"d":"239,-816v167,19,111,299,82,436r-23,88v-43,148,-116,311,-208,420v-46,55,-95,85,-150,87r14,-55v61,-12,82,-40,120,-96v123,-185,220,-399,220,-688v0,-63,-8,-130,-59,-138","w":200},"*":{"d":"290,-635v0,34,-45,53,-67,26v-10,-12,-27,-16,-50,-14v9,17,17,33,39,37v15,6,29,13,29,36v0,22,-18,41,-40,40v-33,1,-44,-33,-34,-66v-1,-16,-9,-25,-15,-36v-13,17,-15,39,-12,69v2,23,-21,33,-43,33v-22,0,-34,-22,-34,-45v0,-33,44,-24,56,-46r12,-22v-42,-8,-48,28,-83,28v-49,0,-39,-86,6,-80v30,4,35,32,77,28v-9,-16,-15,-34,-37,-37v-15,-7,-31,-11,-31,-36v0,-23,19,-42,43,-40v30,2,40,32,31,66v0,16,9,24,15,35v13,-15,17,-40,11,-67v0,-19,17,-34,37,-34v22,-1,40,18,40,40v0,37,-42,29,-55,51r-13,22v42,7,50,-24,78,-28v20,-3,40,19,40,40","w":304},"+":{"d":"230,-292r0,145r-66,0r0,-145r-145,0r0,-66r145,0r0,-146r66,0r0,146r146,0r0,66r-146,0","w":400},",":{"d":"63,-136v25,0,44,24,36,51r-20,71r-47,0r14,-48v-35,-13,-25,-74,17,-74","w":115},"-":{"d":"0,-287r0,-76r188,0r0,76r-188,0","w":200},".":{"d":"89,-97v0,21,-18,38,-39,38v-21,0,-39,-17,-39,-38v0,-22,18,-39,39,-39v21,0,39,17,39,39","w":98},"\/":{"d":"84,0r-55,0r207,-772r55,0","w":305},"0":{"d":"200,-420v110,-18,169,76,137,183v-25,84,-98,170,-201,172v-95,2,-136,-89,-111,-185v20,-78,95,-157,175,-170xm68,-237v-21,72,17,149,97,123v68,-22,131,-88,134,-178v1,-60,-41,-98,-103,-81v-56,15,-111,77,-128,136","w":361},"1":{"d":"69,-74r-47,0r83,-289r-80,31r-17,-42r166,-64","w":182},"2":{"d":"239,-431v61,0,115,38,96,101v-24,77,-119,97,-175,146v-26,22,-52,40,-72,65r138,0v22,-2,44,-21,49,-40r43,12v-8,38,-51,73,-95,73r-207,0v41,-113,149,-169,243,-231v17,-11,31,-25,34,-48v-20,-64,-158,-27,-148,38v-13,3,-28,10,-41,10v-6,0,-8,-4,-8,-10v5,-70,70,-116,143,-116","w":354},"3":{"d":"292,-153v0,92,-93,147,-182,147r-94,0r0,-45v111,1,224,1,231,-101v4,-64,-91,-66,-139,-44v-5,-14,-9,-30,-16,-43v58,-25,125,-40,176,-73v9,-9,16,-17,16,-32v0,-33,-33,-45,-69,-42v-45,4,-94,30,-95,79v-18,1,-52,17,-46,-15v12,-61,77,-109,147,-109v59,0,109,27,109,87v0,64,-54,82,-100,102v34,15,62,42,62,89","w":346},"4":{"d":"283,-119r42,0r0,45r-55,0r-38,133r-44,-12r35,-121r-205,0v39,-191,169,-307,354,-355xm305,-362v-103,40,-198,134,-231,243r162,0","w":389},"5":{"d":"201,-269v-59,0,-91,42,-116,82r-41,-21r79,-179v10,-23,32,-43,61,-44r175,0r0,45r-175,0v-31,14,-37,60,-51,90v19,-9,41,-18,68,-18v83,-1,123,77,99,159v-22,74,-85,150,-174,150r-109,0r0,-45v73,-3,139,13,181,-29v34,-34,64,-63,64,-123v0,-41,-21,-67,-61,-67","w":376},"6":{"d":"231,-426v96,-2,143,88,115,184v-25,85,-102,170,-205,173v-111,3,-145,-118,-107,-219v45,-120,115,-224,228,-269v23,-9,46,-11,69,-5r-11,44v-76,-6,-116,53,-158,92v-8,8,-14,16,-19,23v25,-13,54,-23,88,-23xm231,-381v-96,0,-164,81,-169,182v-3,60,44,97,106,81v71,-19,141,-86,141,-178v0,-51,-26,-85,-78,-85","w":371},"7":{"d":"75,-386v-10,2,-15,9,-14,23r6,79r-45,4r-6,-88v3,-99,144,-53,248,-63r62,0r-186,296v-20,36,-42,89,-56,134r-43,-13v43,-144,131,-254,203,-372r-169,0","w":341},"8":{"d":"313,-413v9,-23,14,-53,-18,-49v-59,8,-126,24,-129,83r51,54r68,-39r23,39r-59,34v27,30,66,57,66,109v0,82,-85,109,-171,113v-76,3,-144,-12,-122,-87v22,-75,94,-108,155,-145v-31,-28,-81,-76,-41,-131v30,-44,88,-70,158,-75v62,-5,85,49,63,105xm63,-125v70,23,231,13,202,-79v-14,-24,-38,-43,-56,-64v-60,41,-140,63,-146,143","w":383},"9":{"d":"219,-436v162,-18,149,193,88,292v-50,82,-107,160,-197,195v-23,9,-47,11,-70,5r11,-43v86,2,134,-65,178,-116v-25,13,-53,25,-88,25v-77,0,-124,-51,-124,-131v0,-123,95,-215,202,-227xm141,-124v97,0,163,-81,168,-182v3,-59,-41,-96,-102,-81v-74,18,-145,85,-145,178v0,52,28,85,79,85","w":371},":":{"d":"89,-97v0,21,-18,38,-39,38v-21,0,-39,-17,-39,-38v0,-22,18,-39,39,-39v21,0,39,17,39,39xm89,-277v0,21,-18,38,-39,38v-21,0,-39,-17,-39,-38v0,-22,18,-39,39,-39v21,0,39,17,39,39","w":98},";":{"d":"53,-136v25,0,44,24,36,51r-20,71r-47,0r14,-48v-35,-13,-25,-74,17,-74xm89,-277v0,21,-18,38,-39,38v-21,0,-39,-17,-39,-38v0,-22,18,-39,39,-39v21,0,39,17,39,39","w":98},"<":{"d":"4,-328r0,-57r375,-217r0,92r-250,154r250,154r0,91","w":400},"=":{"d":"-5,-207r0,-76r405,0r0,76r-405,0xm-5,-357r0,-76r405,0r0,76r-405,0","w":400},">":{"d":"6,-111r0,-91r251,-154r-251,-154r0,-92r375,217r0,57","w":400},"?":{"d":"113,-97v0,21,-18,38,-39,38v-21,0,-39,-17,-39,-38v0,-22,18,-39,39,-39v21,0,39,17,39,39xm247,-573v70,-3,104,80,68,139v-44,71,-138,101,-175,178r-22,65r-44,-12v17,-57,34,-104,76,-140r114,-98v27,-21,29,-90,-17,-87v-57,4,-139,-19,-154,34r-34,117r-43,-13v24,-74,26,-183,120,-183r111,0","w":345},"@":{"d":"318,-554v133,0,252,100,235,247v-10,88,-80,187,-181,187v-29,0,-37,-15,-47,-34v-23,19,-58,37,-97,37v-70,0,-93,-63,-95,-130v-3,-103,89,-198,192,-198v42,0,48,30,72,46r8,-31r40,0r-55,151v-15,44,-29,67,-29,110v0,14,15,19,30,19v81,0,119,-100,125,-185v7,-107,-103,-184,-206,-184v-131,0,-254,108,-254,249v0,137,126,226,261,227v97,0,142,-46,188,-101r40,0v-48,82,-119,134,-239,136v-151,2,-289,-112,-289,-268v0,-168,140,-279,301,-278xm225,-155v114,14,125,-101,148,-193v-9,-31,-22,-71,-63,-68v-84,6,-138,90,-138,177v0,42,15,79,53,84","w":581},"A":{"d":"820,-680v28,-27,93,-22,78,32r-99,352r61,0r0,45r-75,0r-57,201r-168,-199v-76,100,-149,180,-344,175r-173,0r0,-46r173,0v169,1,238,-58,314,-163v-2,-5,-6,-7,-10,-13r18,0r265,-366v5,-7,11,-12,17,-18xm618,-251r90,107r30,-107r-120,0xm853,-650v-92,113,-172,237,-259,354r157,0","w":873},"B":{"d":"620,-722v70,-5,95,73,69,135v-21,52,-52,102,-93,133r-113,85v46,31,108,68,108,139v0,138,-146,155,-287,155r-271,0r0,-45r273,0v110,-2,230,-6,239,-109v-9,-75,-90,-102,-144,-136v70,-49,142,-95,200,-156v33,-33,51,-71,51,-114v0,-80,-99,-24,-129,0v-45,36,-88,74,-126,115r-67,231v-19,55,-49,120,-113,120v-41,0,-53,-44,-42,-86v32,-111,101,-200,181,-288r53,-184r44,12r-29,102v53,-45,107,-102,196,-109xm326,-438v-39,64,-116,137,-106,223v69,-25,82,-151,106,-223","w":657},"C":{"d":"395,-702v65,-19,162,-15,155,56v-9,98,-130,131,-204,173r-20,-41v63,-34,143,-58,176,-119v14,-27,-15,-36,-44,-33v-123,11,-191,75,-262,152v-73,78,-125,150,-125,281v0,94,55,136,149,136v76,0,133,-30,180,-62r27,36v-54,38,-119,70,-207,72v-140,3,-212,-89,-190,-235v27,-178,165,-319,299,-391v22,-12,44,-19,66,-25","w":476},"D":{"d":"134,-702v-36,-87,75,-123,152,-84v76,37,154,120,215,184r35,-76r41,19r-43,93v70,91,172,152,150,306v-17,116,-99,186,-264,186r-387,0r0,-46v135,3,245,-2,292,-104r155,-333r-75,-81v-56,-47,-98,-118,-194,-118v-18,0,-37,3,-37,21v0,13,12,37,37,69v25,32,73,74,146,126r-26,37r-39,-28v-58,-45,-128,-98,-158,-171xm294,-120v185,6,356,0,348,-184v-3,-65,-23,-80,-58,-130v-20,-26,-44,-55,-71,-86r-147,315v-16,36,-40,64,-72,85","w":695},"E":{"d":"359,-691v69,-48,243,-67,217,56v-9,44,-42,73,-64,107r-38,-25v19,-34,58,-64,60,-109v-11,-32,-59,-29,-94,-16v-76,27,-158,75,-182,157v5,35,32,53,49,77v-70,39,-139,89,-192,148v-29,32,-43,64,-43,97v0,61,49,78,109,79r303,0r0,46r-303,0v-86,-2,-153,-33,-153,-121v0,-95,67,-149,126,-201v26,-21,54,-42,87,-62v-26,-23,-39,-73,-14,-112v32,-50,81,-86,132,-121","w":512},"F":{"d":"71,-332v1,12,10,16,22,16v96,-34,170,-154,234,-236r36,28v-52,71,-132,175,-191,218v-32,23,-53,36,-80,36v-83,0,-76,-91,-33,-157v76,-116,193,-233,339,-283v66,-23,154,-26,149,53v-8,123,-65,251,-93,369r46,0r0,45r-59,0r-121,438r-44,-12r118,-426r-116,0r0,-45r129,0r54,-190v15,-55,36,-130,39,-183v2,-18,-11,-18,-27,-18v-163,0,-297,153,-367,261v-25,38,-35,68,-35,86","w":507},"G":{"d":"507,-788v92,-45,202,26,157,133v-25,60,-78,102,-137,135r-22,-40v51,-32,118,-69,124,-141v5,-53,-58,-67,-102,-46v-148,72,-271,223,-323,394v-9,31,-13,57,-13,77v0,33,7,58,42,58v101,0,149,-68,205,-133v31,-36,57,-78,80,-124r42,17r-102,338r185,0r-20,45r-183,0v-50,101,-168,189,-311,190v-63,0,-106,-28,-106,-88v0,-86,85,-147,179,-147r208,0r60,-198v-54,62,-130,146,-237,146v-97,0,-100,-113,-71,-198v60,-183,184,-339,345,-418xm68,27v0,35,30,43,67,43v109,-3,210,-69,253,-145r-186,0v-68,4,-134,37,-134,102","w":646},"H":{"d":"35,-160v0,-87,85,-148,179,-148r208,0r106,-365r43,12r-102,353r99,0r106,-367r43,13r-101,354r109,0r0,46r-122,0r-65,225r-43,-13r60,-212r-102,0v-51,104,-166,191,-312,191v-63,0,-106,-28,-106,-89xm80,-160v0,38,33,44,72,43v105,-4,208,-72,249,-145r-187,0v-68,4,-134,37,-134,102","w":704},"I":{"d":"486,-731v57,0,55,82,40,129r-84,288v19,10,40,18,63,24r-13,44r-62,-23v-26,83,-35,195,-139,195r-266,0r0,-46r273,0v71,-15,66,-111,91,-173v-70,-41,-86,-158,-53,-253v19,-53,45,-108,80,-148v21,-25,44,-37,70,-37xm462,-546v9,-42,37,-91,24,-139v-70,28,-98,116,-117,192v-15,60,-2,123,34,152","w":494},"J":{"d":"493,-559v9,-40,31,-82,25,-126v-43,2,-56,28,-81,53v-59,57,-81,193,-24,271r-37,26v-47,-63,-57,-191,-14,-265v30,-52,81,-131,151,-131v87,0,40,129,24,183r-76,266r45,-2v21,0,5,27,8,48r-67,0v-57,144,-154,277,-276,353v-71,44,-156,21,-144,-74v21,-165,140,-262,287,-307v31,-10,64,-13,99,-16xm72,46v0,24,1,54,27,48v134,-30,211,-169,276,-278v9,-17,17,-34,23,-49v-162,17,-262,103,-314,227v-8,18,-12,36,-12,52","w":521},"K":{"d":"71,-151v137,92,320,-48,355,-170r112,-392r44,13r-107,372r368,-398r34,31r-347,375r248,281r-34,30r-272,-308v-34,152,-258,323,-430,201","w":801},"L":{"d":"404,-672v57,-53,170,-30,161,62v-11,113,-70,180,-120,257r-37,-26v52,-77,97,-129,112,-232v8,-55,-68,-58,-92,-24v-91,133,-95,344,-204,461v-18,20,-37,39,-59,54r301,0r0,46r-439,0r0,-46v244,-26,253,-314,337,-499v10,-22,25,-39,40,-53","w":522},"M":{"d":"186,-567v8,-29,19,-65,6,-91v-69,24,-91,112,-115,183r-44,-11v28,-89,56,-184,138,-214v77,-28,78,79,58,146r-82,278v56,-109,160,-317,201,-352v41,-36,59,-55,88,-54v47,12,33,63,18,114r-100,345r166,-323v34,-58,59,-133,136,-133v30,0,41,25,40,57v-3,74,-29,146,-51,223r-120,413r-44,-13r154,-523v8,-34,20,-73,16,-111v-41,12,-54,39,-75,80r-229,441v-10,17,-17,30,-39,31v-39,-8,-22,-66,-14,-97r120,-410v5,-20,7,-35,8,-46v-88,62,-166,250,-240,390r-93,176v-14,-7,-28,-16,-44,-21","w":626},"N":{"d":"465,-510v10,-46,30,-93,11,-130v-23,-1,-40,16,-78,52v-35,34,-70,85,-109,153r-205,363r-41,-17r163,-575v-44,5,-49,54,-66,85r-75,135r-40,-21r98,-178v18,-31,31,-67,80,-67v49,0,50,47,39,86r-103,363r127,-225v44,-69,94,-142,161,-185v51,-33,106,-6,102,59v-3,41,-9,75,-20,114r-147,512r-43,-13","w":458},"O":{"d":"460,-458v16,-64,19,-146,-58,-122v-67,21,-109,85,-118,171v4,21,5,40,3,64v-34,-2,-50,-29,-48,-65v8,-113,80,-219,185,-219v98,0,103,99,78,187v-44,158,-133,310,-272,370v-132,57,-231,-42,-200,-192v27,-131,75,-224,156,-317v63,-73,133,-108,207,-108r140,0r0,45v-126,0,-212,-12,-283,64v-91,97,-166,202,-179,373v-6,92,72,127,152,87v115,-58,203,-200,237,-338","w":423},"P":{"d":"383,-704v109,-49,191,50,159,173v-42,158,-144,269,-291,319v-24,8,-44,9,-69,7r4,-46v116,2,183,-77,240,-142v41,-48,71,-108,76,-191v4,-64,-43,-103,-102,-78v-25,11,-60,42,-106,94v-46,52,-106,148,-149,298r-75,261r-44,-12v51,-215,145,-386,144,-653r45,-1v2,56,-1,109,-8,158v53,-92,99,-152,176,-187","w":435},"Q":{"d":"248,-122v76,17,175,15,256,4r6,45v-103,9,-217,15,-306,-13v-48,15,-148,53,-174,-10v-1,-70,102,-60,154,-42v154,-83,289,-189,363,-352v15,-33,21,-62,21,-86v-1,-89,-118,-86,-176,-43v-74,54,-131,123,-175,204r-41,-19v50,-98,128,-190,222,-240v93,-49,224,-11,216,100v-11,152,-127,273,-220,352v-44,37,-94,69,-146,100xm103,-106v2,0,8,-1,3,-1v-1,1,-2,1,-3,1","w":562},"R":{"d":"452,-706v89,-32,158,35,131,132v-46,166,-187,244,-349,296r172,179r-33,31r-208,-216r-95,211r-42,-16r175,-610r44,12r-95,329v57,-102,119,-204,198,-284v29,-29,62,-51,102,-64xm530,-557v19,-47,22,-111,-34,-111v-135,0,-197,167,-256,250v-27,39,-47,77,-64,112v152,-48,295,-107,354,-251","w":497},"S":{"d":"436,-722v86,-21,219,-22,219,74v0,72,-75,103,-126,132r-20,-41v39,-22,93,-41,101,-92v-12,-55,-110,-43,-163,-29v-78,21,-150,52,-168,132v31,146,242,137,242,305v0,200,-275,166,-490,167r0,-45v183,-10,444,49,443,-141v-16,-68,-85,-96,-134,-135v-46,-37,-112,-80,-106,-158v6,-87,112,-147,202,-169","w":594},"T":{"d":"152,-437v-49,-25,-138,-50,-125,-122v7,-41,60,-55,102,-66r389,-94r-380,887r-42,-18r344,-803r-315,76v-30,8,-45,16,-55,30v16,29,44,44,100,69","w":436},"U":{"d":"116,-266v-10,53,-47,159,20,170v110,-17,162,-147,211,-232v37,-64,73,-174,104,-248r34,-84r43,15r-101,352r-23,105v-7,37,-13,78,-15,116r-45,-2r8,-81v7,-47,16,-96,28,-139v-36,68,-77,132,-127,186v-35,38,-74,57,-117,57v-135,0,-67,-206,-43,-295r85,-313v-59,29,-80,110,-112,166r-41,-20v27,-55,56,-110,91,-157v36,-49,126,-41,106,29","w":487},"V":{"d":"266,-650v0,193,-78,369,-49,541v63,11,104,-46,138,-91v95,-127,171,-323,215,-507r44,11v-45,181,-129,394,-228,531v-49,69,-100,104,-155,104v-109,0,-66,-165,-53,-253r38,-266r4,-65v6,-21,-22,-26,-31,-12v-45,65,-79,143,-120,213r-40,-22r98,-178v18,-31,32,-66,80,-66v38,1,59,24,59,60","w":567},"W":{"d":"510,-476v-10,116,-66,265,-21,370v54,-7,92,-55,124,-99v94,-132,172,-307,205,-500r45,7v-37,187,-122,394,-220,532v-49,70,-100,105,-154,105v-90,0,-63,-167,-50,-252r28,-178r-71,147v-41,77,-96,167,-142,224v-31,39,-56,59,-77,59v-50,0,-47,-67,-37,-119r78,-396v0,-29,21,-75,-2,-93v-56,23,-73,92,-101,141r-34,60r-40,-22v42,-67,72,-145,125,-202v45,-48,116,-10,105,65r-11,77r-65,307v-3,44,-13,91,-12,134v131,-139,243,-381,318,-590r43,11","w":792},"X":{"d":"351,-475v82,-90,117,-230,286,-221r-1,46v-72,-1,-107,16,-141,61r-144,190r0,213v1,34,6,65,43,65r187,0r-20,46r-167,0v-117,1,-83,-152,-88,-264v-43,57,-83,116,-136,163r-110,95r-30,-34v76,-64,148,-131,209,-211r67,-88r0,-250v-54,18,-77,67,-104,110r-39,-23v39,-55,63,-124,149,-132v25,4,39,19,39,47r0,187","w":606},"Y":{"d":"196,-182v-3,27,-16,61,12,61v71,0,107,-74,144,-122v100,-132,176,-293,253,-443r43,15r-179,632r254,0r0,46r-271,0v-51,103,-166,189,-312,189v-63,0,-106,-29,-106,-88v0,-87,86,-146,180,-147r207,0r125,-437r-52,97v-48,80,-101,163,-160,229v-42,48,-88,72,-137,72v-85,0,-45,-138,-29,-195r117,-412v-58,29,-80,110,-112,166r-41,-20v28,-55,57,-110,92,-157v48,-64,123,-27,99,57r-116,406v-5,17,-9,35,-11,51xm140,151v114,2,218,-74,261,-144r-187,0v-68,1,-134,37,-134,101v0,33,26,42,60,43","w":717},"Z":{"d":"78,-122v167,10,354,-1,527,3r0,45r-515,0v-48,3,-72,-46,-44,-85v11,-15,21,-26,33,-37r507,-408v22,-18,36,-33,48,-51v-107,-40,-378,-46,-438,35v6,36,33,41,65,54v18,7,42,10,69,13r-4,45v-85,-11,-184,-33,-173,-128v51,-101,250,-97,392,-86v61,5,166,21,128,90v-30,56,-90,88,-138,127r-440,356v-7,8,-14,18,-17,27","w":641},"[":{"d":"-40,165r270,-937r150,0r-16,55r-100,0r-238,827r100,0r-16,55r-150,0","w":212},"\\":{"d":"217,0r-207,-772r55,0r207,772r-55,0","w":382},"]":{"d":"-86,165r16,-55r100,0r238,-827r-100,0r16,-55r150,0r-270,937r-150,0","w":198},"^":{"d":"276,-537r-93,-83r-93,83r-70,-72r163,-163r163,163","w":366},"_":{"d":"-15,83r0,-76r830,0r0,76r-830,0","w":800},"`":{"d":"228,-593r-164,-120r40,-23r144,124","w":362},"a":{"d":"29,-128v21,-89,27,-216,128,-216r193,0r-58,206v0,10,9,20,20,19r297,0r-13,45r-297,0v-82,3,-47,-99,-30,-146v-49,44,-92,108,-151,138v-43,22,-89,-1,-89,-46xm77,-147v-5,44,39,22,56,6r159,-158v-54,3,-118,-5,-166,5v-5,3,-9,8,-11,15","w":534},"b":{"d":"362,-308v0,73,-25,143,-66,188r339,0r-13,45r-592,0r136,-472r45,0r-92,321v55,-51,107,-128,200,-128v28,0,43,16,43,46xm218,-120v76,-10,79,-106,97,-176v-5,-26,-31,-10,-53,3v-67,40,-136,98,-170,173r126,0","w":587},"c":{"d":"98,-298v-23,64,-63,179,46,179r346,0r-13,45r-346,0v-159,10,-101,-178,-65,-270r165,0v59,-1,31,74,20,109r-46,0v6,-18,14,-35,16,-57v0,-3,0,-6,-3,-6r-120,0","w":447},"d":{"d":"293,-146v-4,14,5,27,19,27r297,0r-13,45r-297,0v-79,4,-49,-92,-32,-139v-59,49,-97,138,-189,138v-37,0,-59,-35,-46,-72v26,-74,20,-197,112,-197r161,0r58,-202r45,0xm77,-147v-3,43,34,22,53,5r158,-143r4,-13r-161,0v-10,0,-11,6,-14,13","w":551},"e":{"d":"72,-217v-40,-60,30,-127,95,-127r175,0r-13,45r-175,0v-24,1,-44,12,-47,35v11,41,94,15,140,22r-13,46v-66,2,-157,-16,-160,48v0,17,12,29,29,29r458,0r-13,45r-458,0v-63,5,-79,-74,-44,-116v8,-10,16,-20,26,-27","w":486},"f":{"d":"102,45v-54,5,-88,-43,-72,-96r70,-247r-57,0r13,-46r57,0r58,-202r46,0r-58,202r378,0r-13,46r-329,0v31,36,46,83,47,143v2,107,-46,192,-140,200xm111,0v115,-11,104,-228,30,-280r-68,244v0,21,16,38,38,36","w":482},"g":{"d":"163,-114v-46,69,-158,40,-126,-52v26,-74,30,-178,121,-178r193,0r-65,226r339,-1r-13,45r-339,2v-26,65,-18,174,-100,175r-128,1v29,-100,93,-180,192,-211r33,-113xm186,59v18,-33,23,-79,37,-116v-50,21,-96,65,-118,115xm78,-147v-4,44,40,22,56,6r158,-157v-54,2,-118,-6,-165,4v-5,3,-9,8,-11,15","w":583},"h":{"d":"310,-147v-4,13,-6,28,12,28r253,0r-13,45r-253,0v-42,3,-54,-35,-44,-73r39,-144v0,-16,-11,-21,-25,-11v-7,4,-15,11,-23,20r-190,208r-39,0r136,-472r45,0r-108,375r124,-135v25,-29,46,-43,81,-46v40,-3,54,37,43,73","w":540},"i":{"d":"65,-143v-4,13,5,25,17,24r274,0r-13,45r-274,0v-37,2,-60,-32,-49,-69r61,-215r46,0xm161,-428v0,24,-21,44,-45,44v-24,0,-45,-20,-45,-44v0,-25,20,-45,45,-45v25,0,45,20,45,45","w":311},"j":{"d":"587,-74r-330,2v-26,65,-18,174,-100,175r-128,1v29,-100,93,-180,192,-211r49,-169r-202,193r-28,-27r258,-247r41,0r-69,239r330,-1xm170,59v18,-33,23,-79,37,-116v-50,21,-96,65,-118,115xm373,-428v0,24,-21,44,-45,44v-23,0,-45,-21,-45,-44v0,-24,21,-45,45,-45v25,0,45,20,45,45","w":566},"k":{"d":"79,-74r-46,0r137,-472r45,0xm306,-221v0,38,-37,79,-13,102r409,0r-13,45r-409,0v-76,0,-22,-86,-22,-129v0,-16,-25,-7,-42,-7v-27,0,-55,-16,-37,-42v32,-45,77,-81,114,-122r30,26r-88,91v38,-2,71,1,71,36","w":653},"l":{"d":"65,-143v-4,13,5,25,17,24r274,0r-13,45r-274,0v-36,1,-59,-32,-49,-69r115,-404r46,0","w":299},"m":{"d":"461,-155v0,27,20,36,52,36r225,0r-13,45r-225,0v-125,6,-76,-136,-52,-213v-1,-30,-39,-15,-45,1r-149,212r-45,0r60,-214v-2,-30,-35,-10,-41,3r-161,211r-32,0r78,-270r45,0r-39,136v41,-46,67,-112,125,-138v60,-27,88,40,62,98r-18,56r78,-111v19,-25,41,-49,84,-47v31,1,44,22,44,53v0,56,-33,89,-33,142","w":691},"n":{"d":"300,-237v-15,43,-43,118,31,118r271,0r-13,45r-271,0v-94,10,-94,-80,-68,-146v7,-19,16,-44,16,-66v0,-32,-39,-15,-45,1r-160,211r-32,0r77,-270r46,0r-39,136v42,-46,67,-113,127,-138v51,-21,90,22,70,76","w":554},"o":{"d":"133,-119v79,-2,108,-75,127,-138r46,0v-19,59,-33,101,-78,138r317,0r-13,45r-404,0v-69,3,-105,-46,-102,-107v4,-88,31,-163,125,-163r269,0r-13,46r-275,0v-49,6,-59,58,-59,109v0,38,17,71,60,70","w":498},"p":{"d":"330,-354v68,0,35,94,22,137v-10,35,-22,73,-44,97r338,0r-13,46r-540,0r-51,179r-46,0r133,-463r46,0r-35,120v51,-47,102,-116,190,-116xm320,-269v3,-11,14,-38,-3,-40v-95,28,-170,103,-210,189v64,-6,144,18,171,-28v21,-35,32,-76,42,-121","w":575},"q":{"d":"278,-64v34,-28,84,-55,141,-55r271,0r-13,45r-271,0v-74,-1,-147,64,-162,125r-45,1r67,-232v-51,47,-102,116,-190,116v-70,0,-35,-98,-21,-142v21,-65,48,-138,138,-138r165,0xm85,-148v-2,12,-12,36,4,39v95,-28,169,-105,210,-190r-119,0v-71,5,-79,90,-95,151","w":606},"r":{"d":"276,-176v-9,31,12,58,41,57r284,0r-13,45r-284,0v-120,1,-64,-156,-38,-224r-119,0r-49,170v-8,26,-37,54,-69,54v7,-16,5,-40,20,-48r80,-273r45,0r-14,51r220,0r-13,46r-56,0","w":554},"s":{"d":"174,-119v64,6,125,-17,103,-82v-11,-33,-38,-57,-51,-88r-115,161v-22,34,-44,50,-82,54r13,-45v16,-2,24,-17,32,-27r192,-269r37,17v-28,28,-51,77,-15,113v16,29,42,53,42,95v0,32,-16,52,-31,71r302,0r-13,45r-427,0","w":548},"t":{"d":"114,-176v-9,31,10,58,40,57r280,0r-13,45r-280,0v-121,1,-63,-155,-38,-224r-82,0r13,-46r82,0r41,-143r46,0r-41,143r83,0r-13,46r-83,0","w":374},"u":{"d":"295,-146v-4,14,5,27,19,27r296,0r-13,45r-296,0v-88,-2,-40,-119,-23,-170v-53,59,-92,134,-170,166v-46,19,-92,-12,-76,-64r58,-202r45,0r-59,209v10,34,50,5,65,-10v58,-59,112,-130,160,-199r51,0","w":559},"v":{"d":"87,-121v119,-9,196,-122,226,-221r45,0v-27,92,-82,175,-157,222r386,0r-13,46r-546,0r63,-220v-9,-12,-40,-2,-58,-5r13,-45v48,-3,105,-2,90,50","w":523},"w":{"d":"265,-121v102,-23,156,-124,187,-220r45,0v-25,90,-73,172,-141,222r402,0r-13,45r-539,0r25,-87v-48,53,-103,86,-195,87r62,-224r-42,0r13,-46r45,0v25,-1,38,26,31,50r-50,173v104,-22,156,-126,188,-222r45,0","w":694},"x":{"d":"177,-218v-12,-26,-21,-56,-35,-80r-94,0r13,-46v49,4,113,-15,131,28r26,61r98,-89r58,0r-140,127v20,36,21,98,73,98r269,0r-13,45r-269,0v-66,-1,-80,-56,-100,-106v-51,39,-84,100,-167,106r13,-45v62,-12,96,-65,137,-99","w":516},"y":{"d":"282,-118r338,-1r-13,45r-338,2v-14,52,-25,104,-49,145v-29,50,-112,23,-179,31v29,-100,94,-180,193,-211r36,-126v-45,56,-98,116,-162,149v-46,24,-91,-9,-75,-63r56,-197r45,0r-57,206v0,14,11,21,25,12v84,-53,142,-133,194,-218r51,0xm219,-57v-50,21,-96,65,-118,115r81,1v19,-28,27,-79,37,-116","w":570},"z":{"d":"69,-74v-54,4,-52,-53,-19,-83r153,-141r-147,0r13,-46r241,0r-232,215v-7,5,-5,10,4,10r417,0r-13,45r-417,0","w":450},"{":{"d":"64,-12v-11,48,-64,143,12,148r-11,36v-49,1,-82,-8,-79,-54v8,-119,79,-215,79,-339v0,-26,-7,-48,-33,-47r19,-64v58,-7,76,-83,95,-135v31,-90,48,-215,100,-278v18,-22,51,-29,92,-27r-11,35v-40,0,-62,27,-71,60v-33,106,-59,239,-107,327v-15,26,-34,43,-59,50v21,6,24,29,24,57v0,80,-33,161,-50,231","w":204},"|":{"d":"45,171r0,-943r50,0r0,943r-50,0","w":130},"}":{"d":"229,-467v-10,41,-39,128,17,135r-19,64v-58,7,-78,83,-95,135v-30,89,-49,213,-100,276v-19,23,-52,29,-92,29r10,-35v94,-9,84,-128,113,-201v21,-53,35,-107,55,-154v20,-47,43,-74,69,-82v-44,-19,-31,-80,-17,-132r73,-269v0,-24,-16,-36,-41,-36r11,-35v49,-2,84,7,80,53v-8,87,-44,171,-64,252","w":266},"~":{"d":"485,-321v-41,50,-80,79,-156,79v-79,0,-100,-69,-174,-69v-45,0,-72,18,-97,50r-55,-48v38,-48,80,-74,153,-75v80,-2,99,64,174,67v46,2,74,-23,97,-50","w":485},"\u00c7":{"d":"395,-702v65,-19,162,-15,155,56v-9,98,-130,131,-204,173r-20,-41v63,-34,143,-58,176,-119v14,-27,-15,-36,-44,-33v-123,11,-191,75,-262,152v-73,78,-125,150,-125,281v0,94,55,136,149,136v76,0,133,-30,180,-62r27,36v-51,37,-116,66,-198,72r-68,136r-46,-33r65,-107v-140,-6,-182,-161,-134,-297v54,-154,189,-302,349,-350","w":491},"\u00d6":{"d":"460,-458v16,-64,19,-146,-58,-122v-67,21,-109,85,-118,171v4,21,5,40,3,64v-34,-2,-50,-29,-48,-65v8,-113,80,-219,185,-219v98,0,103,99,78,187v-44,158,-133,310,-272,370v-132,57,-231,-42,-200,-192v27,-131,75,-224,156,-317v63,-73,133,-108,207,-108r140,0r0,45v-126,0,-212,-12,-283,64v-91,97,-166,202,-179,373v-6,92,72,127,152,87v115,-58,203,-200,237,-338xm369,-722r-56,0r20,-70r56,0xm473,-722r-56,0r20,-70r56,0","w":480},"\u00dc":{"d":"116,-266v-10,53,-47,159,20,170v110,-17,162,-147,211,-232v37,-64,73,-174,104,-248r34,-84r43,15r-101,352r-23,105v-7,37,-13,78,-15,116r-45,-2r8,-81v7,-47,16,-96,28,-139v-36,68,-77,132,-127,186v-35,38,-74,57,-117,57v-135,0,-67,-206,-43,-295r85,-313v-59,29,-80,110,-112,166r-41,-20v27,-55,56,-110,91,-157v36,-49,126,-41,106,29xm337,-717r-56,0r20,-70r56,0xm441,-717r-56,0r20,-70r56,0","w":491},"\u00e7":{"d":"98,-298v-23,64,-63,179,46,179r346,0r-13,45r-372,-1r-44,96r-56,1r58,-106v-88,-46,-18,-191,3,-260r165,0v59,-1,31,74,20,109r-46,0v6,-18,14,-35,16,-57v0,-3,0,-6,-3,-6r-120,0","w":444},"\u00f6":{"d":"133,-119v79,-2,108,-75,127,-138r46,0v-19,59,-33,101,-78,138r317,0r-13,45r-404,0v-69,3,-105,-46,-102,-107v4,-88,31,-163,125,-163r269,0r-13,46r-275,0v-49,6,-59,58,-59,109v0,38,17,71,60,70xm202,-375r-56,0r20,-70r56,0xm306,-375r-56,0r20,-70r56,0","w":511},"\u00fc":{"d":"295,-146v-4,14,5,27,19,27r296,0r-13,45r-296,0v-88,-2,-40,-119,-23,-170v-53,59,-92,134,-170,166v-46,19,-92,-12,-76,-64r58,-202r45,0r-59,209v10,34,50,5,65,-10v58,-59,112,-130,160,-199r51,0xm190,-395r-56,0r20,-70r56,0xm294,-395r-56,0r20,-70r56,0","w":566},"\u20ac":{"d":"396,-402v-41,-67,-173,-37,-217,5v-17,16,-36,32,-49,51r226,0r0,46r-250,0r-7,19r238,0r0,45r-243,0v5,63,44,100,111,100v54,0,91,-22,124,-47r28,35v-38,29,-91,57,-154,57v-94,0,-147,-56,-155,-145r-27,0r0,-45r31,0v1,-12,10,-17,2,-20r-15,1r0,-46r37,0v50,-80,127,-152,257,-141v44,4,80,28,100,59","w":454},"\u00a4":{"d":"396,-402v-41,-67,-173,-37,-217,5v-17,16,-36,32,-49,51r226,0r0,46r-250,0r-7,19r238,0r0,45r-243,0v5,63,44,100,111,100v54,0,91,-22,124,-47r28,35v-38,29,-91,57,-154,57v-94,0,-147,-56,-155,-145r-27,0r0,-45r31,0v1,-12,10,-17,2,-20r-15,1r0,-46r37,0v50,-80,127,-152,257,-141v44,4,80,28,100,59","w":454},"\u0131":{"d":"65,-143v-4,13,5,25,17,24r274,0r-13,45r-274,0v-37,2,-60,-32,-49,-69r61,-215r46,0","w":373},"\u20a3":{"w":500},"\u011e":{},"\u011f":{},"\u0130":{},"\u015e":{},"\u015f":{},"\u20a7":{"w":500}}});


